digraph Tree {
node [shape=box, style="filled, rounded", color="black", fontname=helvetica] ;
edge [fontname=helvetica] ;
0 [label="County_Burial <= 31.92\ngini = 0.5\nsamples = 1372\nvalue = [688, 684]\nclass = No", fillcolor="#e5813901"] ;
1 [label="Color <= 1.01\ngini = 0.5\nsamples = 1136\nvalue = [609, 527]\nclass = No", fillcolor="#e5813922"] ;
0 -> 1 [labeldistance=2.5, labelangle=45, headlabel="True"] ;
2 [label="County_Morgue <= 27.19\ngini = 0.5\nsamples = 800\nvalue = [403, 397]\nclass = No", fillcolor="#e5813904"] ;
1 -> 2 ;
3 [label="County_Morgue <= 13.5\ngini = 0.49\nsamples = 297\nvalue = [127, 170]\nclass = Yes", fillcolor="#399de540"] ;
2 -> 3 ;
4 [label="County_Morgue <= 10.5\ngini = 0.49\nsamples = 52\nvalue = [30, 22]\nclass = No", fillcolor="#e5813944"] ;
3 -> 4 ;
5 [label="gini = 0.5\nsamples = 41\nvalue = [20, 21]\nclass = Yes", fillcolor="#399de50c"] ;
4 -> 5 ;
6 [label="gini = 0.17\nsamples = 11\nvalue = [10, 1]\nclass = No", fillcolor="#e58139e6"] ;
4 -> 6 ;
7 [label="County_Burial <= 22.89\ngini = 0.48\nsamples = 245\nvalue = [97, 148]\nclass = Yes", fillcolor="#399de558"] ;
3 -> 7 ;
8 [label="gini = 0.49\nsamples = 201\nvalue = [89, 112]\nclass = Yes", fillcolor="#399de534"] ;
7 -> 8 ;
9 [label="gini = 0.3\nsamples = 44\nvalue = [8, 36]\nclass = Yes", fillcolor="#399de5c6"] ;
7 -> 9 ;
10 [label="Burial_Week <= 2.96\ngini = 0.5\nsamples = 503\nvalue = [276, 227]\nclass = No", fillcolor="#e581392d"] ;
2 -> 10 ;
11 [label="Burial_Week <= 1.03\ngini = 0.48\nsamples = 373\nvalue = [227, 146]\nclass = No", fillcolor="#e581395b"] ;
10 -> 11 ;
12 [label="gini = 0.49\nsamples = 348\nvalue = [202, 146]\nclass = No", fillcolor="#e5813947"] ;
11 -> 12 ;
13 [label="gini = 0.0\nsamples = 25\nvalue = [25, 0]\nclass = No", fillcolor="#e58139ff"] ;
11 -> 13 ;
14 [label="County_Morgue <= 31.0\ngini = 0.47\nsamples = 130\nvalue = [49, 81]\nclass = Yes", fillcolor="#399de565"] ;
10 -> 14 ;
15 [label="gini = 0.43\nsamples = 76\nvalue = [24, 52]\nclass = Yes", fillcolor="#399de589"] ;
14 -> 15 ;
16 [label="gini = 0.5\nsamples = 54\nvalue = [25, 29]\nclass = Yes", fillcolor="#399de523"] ;
14 -> 16 ;
17 [label="Cause_of_Death <= 8.0\ngini = 0.47\nsamples = 336\nvalue = [206, 130]\nclass = No", fillcolor="#e581395e"] ;
1 -> 17 ;
18 [label="Married <= 4.0\ngini = 0.43\nsamples = 153\nvalue = [106, 47]\nclass = No", fillcolor="#e581398e"] ;
17 -> 18 ;
19 [label="Spouse_Alive <= 2.99\ngini = 0.28\nsamples = 77\nvalue = [64, 13]\nclass = No", fillcolor="#e58139cb"] ;
18 -> 19 ;
20 [label="gini = 0.1\nsamples = 59\nvalue = [56, 3]\nclass = No", fillcolor="#e58139f1"] ;
19 -> 20 ;
21 [label="gini = 0.49\nsamples = 18\nvalue = [8, 10]\nclass = Yes", fillcolor="#399de533"] ;
19 -> 21 ;
22 [label="Cause_of_Death <= 6.06\ngini = 0.49\nsamples = 76\nvalue = [42, 34]\nclass = No", fillcolor="#e5813931"] ;
18 -> 22 ;
23 [label="gini = 0.5\nsamples = 62\nvalue = [30, 32]\nclass = Yes", fillcolor="#399de510"] ;
22 -> 23 ;
24 [label="gini = 0.24\nsamples = 14\nvalue = [12, 2]\nclass = No", fillcolor="#e58139d4"] ;
22 -> 24 ;
25 [label="Spouse_gender <= 0.12\ngini = 0.5\nsamples = 183\nvalue = [100, 83]\nclass = No", fillcolor="#e581392b"] ;
17 -> 25 ;
26 [label="County_Burial <= 28.5\ngini = 0.49\nsamples = 85\nvalue = [37, 48]\nclass = Yes", fillcolor="#399de53a"] ;
25 -> 26 ;
27 [label="gini = 0.5\nsamples = 69\nvalue = [35, 34]\nclass = No", fillcolor="#e5813907"] ;
26 -> 27 ;
28 [label="gini = 0.22\nsamples = 16\nvalue = [2, 14]\nclass = Yes", fillcolor="#399de5db"] ;
26 -> 28 ;
29 [label="Spouse_gender <= 0.99\ngini = 0.46\nsamples = 98\nvalue = [63, 35]\nclass = No", fillcolor="#e5813971"] ;
25 -> 29 ;
30 [label="gini = 0.0\nsamples = 13\nvalue = [13, 0]\nclass = No", fillcolor="#e58139ff"] ;
29 -> 30 ;
31 [label="gini = 0.48\nsamples = 85\nvalue = [50, 35]\nclass = No", fillcolor="#e581394d"] ;
29 -> 31 ;
32 [label="Burial_Week <= 2.54\ngini = 0.45\nsamples = 236\nvalue = [79, 157]\nclass = Yes", fillcolor="#399de57f"] ;
0 -> 32 [labeldistance=2.5, labelangle=-45, headlabel="False"] ;
33 [label="Morgue <= 151.5\ngini = 0.49\nsamples = 69\nvalue = [39, 30]\nclass = No", fillcolor="#e581393b"] ;
32 -> 33 ;
34 [label="Burial_Day <= 1.5\ngini = 0.42\nsamples = 23\nvalue = [7, 16]\nclass = Yes", fillcolor="#399de58f"] ;
33 -> 34 ;
35 [label="Spouse_Alive <= 2.42\ngini = 0.34\nsamples = 14\nvalue = [3, 11]\nclass = Yes", fillcolor="#399de5b9"] ;
34 -> 35 ;
36 [label="gini = 0.17\nsamples = 11\nvalue = [1, 10]\nclass = Yes", fillcolor="#399de5e6"] ;
35 -> 36 ;
37 [label="gini = 0.44\nsamples = 3\nvalue = [2, 1]\nclass = No", fillcolor="#e581397f"] ;
35 -> 37 ;
38 [label="County_Morgue <= 40.0\ngini = 0.49\nsamples = 9\nvalue = [4, 5]\nclass = Yes", fillcolor="#399de533"] ;
34 -> 38 ;
39 [label="gini = 0.49\nsamples = 7\nvalue = [4, 3]\nclass = No", fillcolor="#e5813940"] ;
38 -> 39 ;
40 [label="gini = 0.0\nsamples = 2\nvalue = [0, 2]\nclass = Yes", fillcolor="#399de5ff"] ;
38 -> 40 ;
41 [label="Married <= 3.28\ngini = 0.42\nsamples = 46\nvalue = [32, 14]\nclass = No", fillcolor="#e581398f"] ;
33 -> 41 ;
42 [label="Color <= 1.13\ngini = 0.34\nsamples = 37\nvalue = [29, 8]\nclass = No", fillcolor="#e58139b9"] ;
41 -> 42 ;
43 [label="gini = 0.43\nsamples = 26\nvalue = [18, 8]\nclass = No", fillcolor="#e581398e"] ;
42 -> 43 ;
44 [label="gini = 0.0\nsamples = 11\nvalue = [11, 0]\nclass = No", fillcolor="#e58139ff"] ;
42 -> 44 ;
45 [label="Morgue <= 212.0\ngini = 0.44\nsamples = 9\nvalue = [3, 6]\nclass = Yes", fillcolor="#399de57f"] ;
41 -> 45 ;
46 [label="gini = 0.0\nsamples = 1\nvalue = [1, 0]\nclass = No", fillcolor="#e58139ff"] ;
45 -> 46 ;
47 [label="gini = 0.38\nsamples = 8\nvalue = [2, 6]\nclass = Yes", fillcolor="#399de5aa"] ;
45 -> 47 ;
48 [label="Burial_Day <= 2.5\ngini = 0.36\nsamples = 167\nvalue = [40, 127]\nclass = Yes", fillcolor="#399de5af"] ;
32 -> 48 ;
49 [label="County_Burial <= 39.5\ngini = 0.45\nsamples = 80\nvalue = [28, 52]\nclass = Yes", fillcolor="#399de576"] ;
48 -> 49 ;
50 [label="Burial_Week <= 3.35\ngini = 0.43\nsamples = 71\nvalue = [22, 49]\nclass = Yes", fillcolor="#399de58d"] ;
49 -> 50 ;
51 [label="gini = 0.42\nsamples = 68\nvalue = [20, 48]\nclass = Yes", fillcolor="#399de595"] ;
50 -> 51 ;
52 [label="gini = 0.44\nsamples = 3\nvalue = [2, 1]\nclass = No", fillcolor="#e581397f"] ;
50 -> 52 ;
53 [label="Married <= 1.5\ngini = 0.44\nsamples = 9\nvalue = [6, 3]\nclass = No", fillcolor="#e581397f"] ;
49 -> 53 ;
54 [label="gini = 0.44\nsamples = 3\nvalue = [1, 2]\nclass = Yes", fillcolor="#399de57f"] ;
53 -> 54 ;
55 [label="gini = 0.28\nsamples = 6\nvalue = [5, 1]\nclass = No", fillcolor="#e58139cc"] ;
53 -> 55 ;
56 [label="Cause_of_Death <= 7.7\ngini = 0.24\nsamples = 87\nvalue = [12, 75]\nclass = Yes", fillcolor="#399de5d6"] ;
48 -> 56 ;
57 [label="Color <= 1.45\ngini = 0.45\nsamples = 23\nvalue = [8, 15]\nclass = Yes", fillcolor="#399de577"] ;
56 -> 57 ;
58 [label="gini = 0.33\nsamples = 19\nvalue = [4, 15]\nclass = Yes", fillcolor="#399de5bb"] ;
57 -> 58 ;
59 [label="gini = 0.0\nsamples = 4\nvalue = [4, 0]\nclass = No", fillcolor="#e58139ff"] ;
57 -> 59 ;
60 [label="Gender <= 0.5\ngini = 0.12\nsamples = 64\nvalue = [4, 60]\nclass = Yes", fillcolor="#399de5ee"] ;
56 -> 60 ;
61 [label="gini = 0.08\nsamples = 25\nvalue = [1, 24]\nclass = Yes", fillcolor="#399de5f4"] ;
60 -> 61 ;
62 [label="gini = 0.14\nsamples = 39\nvalue = [3, 36]\nclass = Yes", fillcolor="#399de5ea"] ;
60 -> 62 ;
}